//Numpy array shape [32, 32]
//Min -1.015256166458
//Max 0.594118058681
//Number of zeros 0

#ifndef W8_H_
#define W8_H_

#ifndef __SYNTHESIS__
dec1_weight_t w8[1024];
#else
dec1_weight_t w8[1024] = {0.2980, 0.0915, 0.0412, -0.1836, 0.3106, -0.0844, 0.1883, 0.0037, -0.0385, -0.2212, 0.2723, -0.0215, 0.0083, 0.1883, 0.3119, -0.1051, 0.1350, -0.1344, -0.0607, 0.2013, -0.0127, 0.2744, 0.0356, -0.5876, -0.0668, 0.0258, -0.2046, -0.1820, 0.1150, -0.0143, -0.1146, 0.1826, 0.5450, 0.1512, -0.2400, -0.2011, -0.2817, -0.2204, 0.0964, 0.3431, -0.1290, -0.0491, 0.2583, -0.1739, -0.0733, -0.0756, -0.0317, -0.0903, 0.0695, -0.0375, 0.2490, 0.1641, 0.1459, 0.0262, 0.0930, 0.0871, 0.1177, -0.3076, 0.1143, 0.0084, 0.2418, 0.0588, 0.1654, 0.2447, 0.1893, -0.2028, 0.0991, 0.2142, 0.0646, -0.2267, -0.0772, -0.1697, 0.2272, 0.3583, -0.1989, -0.0108, -0.0391, -0.0544, 0.1878, -0.0157, 0.0428, -0.2275, 0.2406, 0.0091, -0.0759, -0.0804, -0.0930, -0.5436, -0.0843, -0.0804, 0.1785, 0.0695, 0.1074, 0.0182, -0.0999, 0.3447, -0.4036, -0.0974, -0.2685, 0.1800, -0.0147, 0.2206, 0.1100, 0.2398, -0.1430, -0.0315, -0.2693, 0.1040, -0.2657, 0.0839, 0.3403, -0.1752, 0.0830, -0.1515, 0.0758, 0.1429, 0.0361, 0.1065, -0.0630, 0.0637, 0.0392, 0.1078, 0.2746, -0.2310, -0.2501, 0.0954, 0.0330, -0.2759, 0.1697, 0.2317, -0.1939, -0.0748, -0.0817, 0.2299, 0.1664, -0.0422, 0.4011, -0.0985, -0.0416, 0.0153, -0.2448, -0.2669, -0.0189, 0.2118, 0.3779, 0.0607, -0.0249, -0.0113, -0.1595, 0.1284, -0.1558, -0.3699, 0.1764, -0.2539, -0.2419, -0.3016, 0.0453, 0.0080, 0.2806, -0.0497, -0.3141, 0.0330, 0.1440, 0.1012, -0.0637, -0.2336, 0.0331, 0.0203, -0.0923, 0.0257, -0.2243, -0.1530, 0.1140, 0.2208, -0.2734, 0.1165, -0.1397, 0.1649, 0.0022, 0.2153, -0.3093, 0.1059, 0.2847, -0.4341, 0.2515, 0.2524, 0.2340, 0.1595, -0.3053, 0.2036, 0.0356, 0.2479, 0.0347, 0.2161, -0.2137, 0.0884, 0.2801, 0.0056, -0.0419, -0.1087, -0.2055, 0.1367, -0.2899, 0.2721, -0.2364, 0.1420, 0.0947, 0.3737, -0.1573, -0.1260, 0.1994, 0.2906, 0.0925, -0.1940, -0.2656, -0.0392, -0.3512, -0.2695, -0.0648, -0.2776, -0.0188, 0.0062, -0.0105, 0.1453, -0.2137, -0.2381, 0.0894, 0.0373, 0.1663, 0.0703, -0.1666, 0.1407, 0.1956, -0.0321, -0.1400, 0.2539, -0.2311, -0.2488, 0.0213, 0.3449, -0.0151, -0.1017, -0.3672, 0.0957, -0.2432, -0.1880, -0.1434, 0.1546, 0.1300, 0.1437, 0.2288, -0.2159, 0.2803, -0.0128, -0.0374, 0.2348, -0.1087, 0.1716, 0.0974, -0.0607, 0.2798, 0.1965, -0.1707, 0.0212, -0.1162, 0.2437, -0.1429, -0.3205, -0.0670, -0.0400, -0.1297, -0.1489, -0.1878, 0.3144, 0.1639, 0.3232, -0.1798, 0.1082, -0.1160, -0.0436, 0.1614, -0.0685, 0.0299, -0.1882, 0.1964, 0.0726, 0.0421, -0.2014, -0.0946, -0.2379, -0.0682, 0.0223, 0.0930, 0.0271, 0.2783, -0.1385, 0.2933, 0.0336, -0.1982, 0.0816, 0.2790, 0.2619, -0.0975, -0.1256, 0.0712, 0.0998, -0.1072, 0.2669, 0.2219, -0.2849, 0.3013, -0.3410, -0.3372, 0.2044, -0.1190, -0.1329, 0.2874, -0.1934, 0.0284, 0.1090, 0.3223, 0.2482, 0.1377, 0.2055, 0.2441, -0.0040, -0.0884, 0.0458, 0.0871, -0.0384, 0.0073, 0.1701, -0.2279, -0.0508, -0.0964, -0.2085, -0.2565, 0.1507, -0.1422, -0.1914, 0.0261, -0.1425, -0.0613, -0.4154, 0.1281, -0.2774, 0.1586, -0.0899, -0.1051, -0.0794, 0.2436, 0.1874, 0.3726, -0.1451, 0.3490, 0.1816, -0.1811, -0.1698, 0.1859, 0.2925, -0.0368, -0.2712, 0.0729, -0.2343, -0.0772, -0.0943, -0.0857, 0.0911, -0.1544, 0.0887, 0.2319, 0.2578, 0.2946, 0.3107, -0.1832, -0.0703, 0.1209, 0.2395, 0.1079, -0.0832, -0.1697, -0.1228, 0.2216, 0.1513, -0.4543, 0.1418, 0.2051, 0.3052, -0.0776, 0.0365, 0.0749, -0.2038, 0.1386, -0.1036, 0.2946, 0.0914, -0.1882, 0.0161, 0.0623, -0.0672, -0.0134, -0.1421, -0.1390, 0.1448, -0.2364, 0.2220, -0.0021, 0.3547, -0.2008, 0.1332, -0.0236, -0.2294, 0.2208, 0.0938, 0.1330, 0.1222, -0.0898, 0.0083, 0.1703, -0.0647, -0.2297, 0.1364, -0.0671, -0.1502, 0.1899, -0.0521, -0.2818, -0.1593, -0.2854, 0.3881, 0.2771, 0.1475, 0.2381, 0.3194, -0.1580, -0.1428, 0.0005, -0.1255, -0.2551, -0.1714, -0.1049, -0.2915, 0.0793, -0.1836, -0.0687, 0.0404, 0.1690, 0.1003, 0.0198, 0.1325, -0.0453, 0.0175, -0.2644, 0.4733, -0.0150, -0.2536, -0.1585, -0.1293, 0.1400, 0.0777, 0.0457, 0.1478, 0.1968, -0.0392, -0.1605, -0.2297, -0.0910, 0.1881, 0.1651, 0.1332, 0.0313, -0.2718, 0.0938, -0.1184, 0.1873, 0.1763, 0.3256, 0.2005, -0.3675, -0.1101, 0.1537, -0.2067, 0.0962, 0.1247, 0.1486, 0.1720, -0.3061, -0.0405, 0.1155, -0.2401, 0.1053, 0.0242, -0.1128, -0.2260, -0.0615, 0.3352, -0.1433, -0.2729, 0.2667, -0.1408, 0.0030, 0.1750, 0.1886, -1.0153, -0.1297, -0.1096, 0.2049, 0.0903, -0.1150, -0.0216, 0.0836, -0.5231, 0.5941, -0.0221, -0.2390, 0.2501, 0.3034, 0.2898, -0.2917, 0.2575, 0.1850, -0.0429, -0.0376, -0.2491, -0.2966, 0.0147, -0.1973, 0.2206, 0.0080, 0.2438, 0.0245, -0.2128, -0.3454, 0.2027, 0.2500, 0.3129, 0.0294, 0.1711, 0.0468, 0.3121, -0.1458, -0.1435, 0.0708, -0.0354, 0.0450, 0.2191, -0.1092, 0.3133, -0.1321, -0.2922, -0.0437, 0.1564, -0.1491, 0.2936, -0.1652, 0.0738, -0.1901, 0.0764, 0.1424, -0.0777, 0.1206, 0.1054, -0.2510, 0.2072, 0.1847, 0.1439, 0.0609, -0.2108, -0.1553, -0.1517, 0.2455, 0.2761, 0.1411, -0.4021, -0.1387, -0.2145, 0.4410, -0.0475, 0.0049, 0.1819, 0.0438, -0.3176, 0.2220, -0.2194, -0.1503, -0.1212, -0.1327, 0.2045, -0.2867, -0.4486, 0.0495, -0.1120, 0.2042, -0.2290, -0.1377, 0.0815, -0.0955, -0.0734, 0.3167, 0.2941, -0.3694, -0.2216, 0.3343, -0.0979, 0.0629, 0.1511, 0.1996, -0.0994, -0.1667, 0.0695, 0.1054, -0.3282, 0.1476, 0.0829, -0.1525, 0.2306, 0.0252, 0.2749, 0.1489, -0.1673, 0.0909, 0.0367, -0.0196, 0.2373, -0.0729, -0.1698, 0.0040, -0.3185, 0.3007, 0.3099, 0.1306, -0.3820, -0.1164, 0.2127, -0.0193, -0.2948, -0.0563, 0.0132, 0.1546, 0.1353, -0.0871, -0.1061, -0.1903, 0.2889, 0.2028, -0.0337, -0.0051, -0.2261, -0.0453, -0.2002, 0.2183, -0.1025, 0.1630, -0.0126, -0.0526, -0.1128, 0.1816, -0.2228, 0.0192, 0.0865, 0.3466, 0.1824, 0.0848, 0.2935, 0.4546, 0.0478, -0.0478, -0.2654, 0.0864, 0.0792, -0.1284, 0.2838, -0.0834, 0.2851, 0.1217, 0.1441, 0.1946, -0.0306, 0.1929, 0.1174, 0.1609, -0.0449, -0.0352, -0.3288, -0.1037, 0.0967, 0.1631, -0.0105, 0.2851, -0.3359, -0.0029, 0.0550, 0.0468, -0.1979, 0.2123, 0.0206, -0.0846, -0.2822, 0.1925, 0.1470, -0.1859, -0.1172, 0.0008, -0.2167, 0.2547, -0.0378, 0.0693, -0.1232, -0.0454, 0.2153, 0.2115, -0.2203, -0.2651, -0.0205, -0.2362, 0.1345, -0.0838, 0.0450, -0.2123, -0.1720, 0.1355, 0.0903, 0.1683, 0.1745, -0.0379, 0.2391, 0.1259, 0.2408, 0.2548, -0.2309, 0.2702, -0.0130, -0.1461, -0.2448, 0.0939, 0.1368, -0.1841, -0.0060, -0.2064, 0.1292, 0.0611, -0.3537, 0.0700, -0.0979, 0.1594, -0.2962, -0.1230, 0.1783, 0.0447, 0.2323, -0.3075, 0.0615, -0.2368, -0.2275, 0.2285, -0.2157, -0.1608, -0.1244, -0.0024, 0.2306, -0.3322, 0.2587, 0.1417, -0.0114, -0.0242, -0.0285, -0.0574, -0.2284, -0.2222, -0.0396, 0.2123, 0.1797, -0.0283, -0.0912, -0.2672, -0.2150, -0.2642, -0.1581, 0.0480, 0.1001, 0.0600, -0.1631, 0.0331, 0.0197, 0.2289, 0.3642, -0.0198, -0.0740, 0.2404, -0.0231, 0.1633, -0.2305, -0.2265, 0.0140, 0.2926, -0.0104, 0.0349, 0.2480, -0.0589, 0.0769, -0.0071, 0.0249, 0.2298, -0.0602, 0.1985, -0.2729, -0.1323, 0.1736, 0.1351, -0.1873, 0.2664, 0.1531, -0.1351, 0.2394, -0.1003, 0.0755, -0.0026, -0.2203, 0.3101, -0.1613, -0.0629, 0.0280, -0.1314, -0.3208, 0.2719, 0.2192, 0.1218, 0.1153, 0.3162, -0.1822, 0.0935, -0.1916, 0.1828, 0.1586, 0.1873, -0.1683, -0.0861, -0.1144, 0.2378, -0.0022, -0.0476, 0.1970, -0.0482, 0.1044, -0.2479, -0.1288, 0.3485, 0.0897, -0.2662, 0.1547, 0.1604, 0.1832, 0.0077, -0.2269, 0.3128, -0.0830, 0.2069, -0.2100, -0.1940, 0.0952, -0.0704, -0.0599, -0.0861, -0.0350, 0.2791, -0.0001, -0.1769, 0.0485, -0.3275, 0.3176, 0.0387, 0.3856, 0.1422, -0.1521, 0.1866, 0.0465, 0.2156, -0.0337, -0.3705, -0.2592, -0.1738, -0.4832, 0.3563, 0.0888, -0.1751, -0.0161, 0.0887, -0.2483, 0.2150, -0.1392, -0.1149, 0.1430, 0.0006, -0.0283, 0.0278, 0.2117, 0.2032, -0.1228, 0.2673, 0.1527, 0.1511, 0.1748, 0.0934, 0.2083, -0.3318, 0.2578, 0.2137, 0.0414, -0.0961, 0.0668, -0.2485, -0.1340, 0.2979, 0.1365, -0.0662, -0.0792, -0.1393, -0.2100, 0.1085, -0.3326, 0.2352, -0.1843, -0.1564, 0.0871, -0.1038, 0.0390, 0.1796, 0.0579, -0.4816, 0.0532, -0.1470, 0.2837, 0.1515, 0.1679, 0.0623, 0.0787, -0.1248, -0.1548, 0.0079, -0.0999, 0.0089, -0.1360, -0.0289, 0.1623, 0.0444, 0.0229, 0.1505, 0.0045, -0.2542, -0.2026, 0.0591, -0.2243, 0.1244, -0.0958, 0.0083, -0.0803, 0.0737, -0.3426, 0.1163, 0.4454, -0.2449, 0.1780, 0.2683, -0.0287, 0.2505, -0.0025, 0.1387, 0.3071, 0.2909, 0.0259, 0.2867, 0.2865, 0.1244, 0.0695, -0.2319, -0.2225, -0.0474, 0.1396, 0.2505, 0.0129, -0.0248, -0.0439, -0.2020, 0.1329, -0.1462, 0.0471, -0.0274, 0.1716, -0.0241, -0.0209, -0.3173, -0.0388, 0.4086, 0.0618, 0.2468, -0.0989, -0.3194, -0.0904, 0.2514, -0.2308, -0.0301, 0.0182, -0.2347, -0.0040, -0.0785, -0.1761, 0.3214, 0.0918, 0.2755, 0.2109, 0.3041, -0.3506, 0.1525, -0.0544, 0.3052, -0.0497, -0.1186, -0.2259, -0.2107, -0.1398, -0.3339, -0.2196, -0.1647, 0.1076};

#endif

#endif
